digraph Tree {
node [shape=box, style="filled, rounded", color="black", fontname=helvetica] ;
edge [fontname=helvetica] ;
0 [label="petal_width <= 0.8\ngini = 0.667\nsamples = 150\nvalue = [50, 50, 50]", fillcolor="#e5813900"] ;
1 [label="gini = 0.0\nsamples = 50\nvalue = [50, 0, 0]", fillcolor="#e58139ff"] ;
0 -> 1 [labeldistance=2.5, labelangle=45, headlabel="True"] ;
2 [label="petal_width <= 1.75\ngini = 0.5\nsamples = 100\nvalue = [0, 50, 50]", fillcolor="#39e58100"] ;
0 -> 2 [labeldistance=2.5, labelangle=-45, headlabel="False"] ;
3 [label="petal_length <= 4.95\ngini = 0.168\nsamples = 54\nvalue = [0, 49, 5]", fillcolor="#39e581e5"] ;
2 -> 3 ;
4 [label="petal_width <= 1.65\ngini = 0.041\nsamples = 48\nvalue = [0, 47, 1]", fillcolor="#39e581fa"] ;
3 -> 4 ;
5 [label="gini = 0.0\nsamples = 47\nvalue = [0, 47, 0]", fillcolor="#39e581ff"] ;
4 -> 5 ;
6 [label="gini = 0.0\nsamples = 1\nvalue = [0, 0, 1]", fillcolor="#8139e5ff"] ;
4 -> 6 ;
7 [label="petal_width <= 1.55\ngini = 0.444\nsamples = 6\nvalue = [0, 2, 4]", fillcolor="#8139e57f"] ;
3 -> 7 ;
8 [label="gini = 0.0\nsamples = 3\nvalue = [0, 0, 3]", fillcolor="#8139e5ff"] ;
7 -> 8 ;
9 [label="petal_length <= 5.45\ngini = 0.444\nsamples = 3\nvalue = [0, 2, 1]", fillcolor="#39e5817f"] ;
7 -> 9 ;
10 [label="gini = 0.0\nsamples = 2\nvalue = [0, 2, 0]", fillcolor="#39e581ff"] ;
9 -> 10 ;
11 [label="gini = 0.0\nsamples = 1\nvalue = [0, 0, 1]", fillcolor="#8139e5ff"] ;
9 -> 11 ;
12 [label="petal_length <= 4.85\ngini = 0.043\nsamples = 46\nvalue = [0, 1, 45]", fillcolor="#8139e5f9"] ;
2 -> 12 ;
13 [label="sepal_length <= 5.95\ngini = 0.444\nsamples = 3\nvalue = [0, 1, 2]", fillcolor="#8139e57f"] ;
12 -> 13 ;
14 [label="gini = 0.0\nsamples = 1\nvalue = [0, 1, 0]", fillcolor="#39e581ff"] ;
13 -> 14 ;
15 [label="gini = 0.0\nsamples = 2\nvalue = [0, 0, 2]", fillcolor="#8139e5ff"] ;
13 -> 15 ;
16 [label="gini = 0.0\nsamples = 43\nvalue = [0, 0, 43]", fillcolor="#8139e5ff"] ;
12 -> 16 ;
}